4.720973019861273920e-03
1.406197828716855731e-02
-3.390592906874251994e-02
6.791398453384045464e-02
-1.062003376507852370e-01
-1.000288580748972568e-02
4.883752576884852620e-02
-3.364569834837492085e-02
-9.957347920573679512e-02
1.557002282983206420e-01
-1.910002097435948773e-02
6.476250804362955818e-03
-2.664776482651245136e-03
1.472177653429317459e-03
-4.724281539240632495e-03
-1.174448865941785320e-03
-9.275522399695900963e-03
1.318687147047876811e-02
2.562907619890459482e-02
2.124303620446963900e-03
-3.138272849118423687e-03
2.740421106703969708e-03
-1.454356824934454478e-02
8.331122005547903983e-03
-3.844688823801201052e-03
-6.448046832184336878e-03
7.150216843660890317e-03
2.094192429272038677e-02
-1.190690897901864644e-02
2.254002518212562881e-02
-2.044402033842932648e-02
2.218006171000318910e-02
2.067569347442194116e-02
-2.672619375974356892e-02
1.423676141631790605e-02
8.116944445170998224e-03
7.254049316138017501e-05
1.817894235472934314e-02
1.425442538150034633e-02
1.136097421793919211e-02
-8.079509639399715115e-02
-4.161835943438028235e-02
-1.994951781210593106e-02
-1.240172995861894834e-02
-4.588813208215133943e-02
-3.392931399498795575e-02
1.660971436003062102e-02
1.002612538217544959e-02
-1.962470713171375267e-02
-1.988433305947324425e-01
-1.292107259102843464e-01
-1.368087210009104500e-02
-5.736966585174833877e-02
-1.965188573697327912e-01
1.562143862640522421e-02
-1.480597349470540343e-02
-4.856232957770222763e-02
1.803849820226898978e-02
2.414803396845698336e-01
1.364080026274173407e-01
2.566033246183731242e-02
4.397953539079332841e-02
2.064850866847650068e-01
9.732705053139167894e-02
-5.798042723691628104e-03
2.191220601718224179e-02
-1.252547736200022160e-02
-1.900266308505441093e-02
-1.979741653206545417e-03
-2.975234432171122365e-02
-2.575797323241053177e-02
-7.265125934957309371e-03
1.022393638072256056e-01
1.574055841746970288e-02
1.602429668328494983e-02
-4.930069764416319944e-02
7.006052755422369216e-02
-2.321836456696446584e-03
-7.074438120163162314e-02
5.346186988968279485e-02
2.615601962368463082e-03
5.502818788612999501e-02
-4.187543217517860489e-02
-1.001021451296759540e-02
2.194633254625236174e-01
-2.459269135826669117e-01
-1.837314736487734995e-02
4.784545485579815294e-01
-5.467953798256820486e-01
5.150144481796496698e-02
9.292866431291333384e-01
7.699155209297153454e-03
-9.696316451889679935e-04
-4.937137465473527206e-03
1.817070783449621424e-03
-7.882592648655265682e-03
3.137533092242856658e-03
-8.296548445832842593e-04
-3.688164125226548167e-03
-9.123779994033015886e-03
-1.929654828377484060e-02
1.719236782146335227e-02
2.221194994825426497e-02
-5.153678861925183041e-02
-4.409998974594571408e-02
6.881801106953699954e-02
-8.020100501877390486e-02
-6.177418188382498027e-04
4.718873888239222963e-02
-2.815782894668386604e-02
3.674983076124602177e-02
-6.393690756479533145e-03
-4.344835218800796942e-03
-2.242432043013999413e-03
4.314272831311161474e-03
-7.658579944975030078e-03
1.509684062697395912e-02
2.127437702770016564e-02
2.466050391562446195e-02
-2.101566356390526316e-02
1.261692527771998001e-02
-2.297083420263257639e-02
4.095105174308748784e-03
7.128869647451747948e-03
-1.966335920289492226e-03
-1.900971180739895530e-02
-6.205706750829895722e-03
6.573234733223179069e-03
2.049995328580466944e-02
-5.031762312904637484e-03
8.927378112794523424e-03
4.344278996021971526e-03
1.133973098720833170e-02
-1.447216869240859800e-02
7.521448904851246904e-03
3.566670912267013967e-04
-8.391590859362080615e-03
-4.540034054630829458e-03
6.544693209082712813e-03
-7.272183944997725677e-03
-5.052401889951651202e-03
-7.002562463533446371e-04
-3.864952315232031942e-03
-1.471704672695652028e-02
-5.680073693185615571e-04
-1.939340579865938413e-02
-1.623062682354160791e-02
1.284274700468166115e-02
-1.254166789889873696e-03
-5.198114890847737798e-03
5.140860355932452483e-03
2.501509412972069153e-03
-4.985580968007573277e-03
-1.426911192536333209e-02
-5.182654932404820534e-04
1.676016585528569691e-02
-5.499867600894370150e-03
-8.897830704670888283e-03
3.582373581750398963e-03
1.771430429024503650e-02
-6.043565695312491486e-03
-2.026396982267161112e-02
1.303636522660867915e-02
