1.508678510797096953e-03
1.276343692287987275e-02
-2.669671588335349385e-02
6.252348640285949888e-02
-1.069765146214049223e-01
-6.083347443877377796e-03
4.559028431367292272e-02
-3.122682033840939661e-02
-1.055250232597103738e-01
1.515982398135865272e-01
-2.253801122208525312e-02
7.571289357206653289e-03
6.835877795936317475e-03
2.740780248390661290e-03
-1.415678196112274499e-03
1.158506398128459486e-02
-4.568961757135614477e-03
1.852862671715081039e-02
2.140065057906826926e-02
5.333037084458668031e-04
-6.865765884545818772e-03
2.488180909821488540e-03
-5.213240351084302317e-03
6.405338753658357948e-03
-7.758938141079444080e-03
-5.643742079206678745e-03
1.681955364989422535e-03
2.218380646396675079e-02
-1.871607717639311649e-02
2.191771608098530555e-02
-1.647862286615309202e-02
2.086153086307877824e-02
2.012034831801443047e-02
-3.508984306473426906e-02
1.238526198235093308e-02
1.197705933931746645e-02
2.053689090804503709e-03
1.554727430701964390e-02
8.865419710494147273e-03
2.219400979622865658e-02
-8.549562260841236938e-02
-2.471305004821653523e-02
-2.191512217933773085e-02
-1.136646302944695035e-02
-3.969929681504110602e-02
-2.791877011684104626e-02
1.731415453840603330e-02
1.486129929658124016e-02
-2.063652342714163493e-02
-1.910490686359402335e-01
-1.064838577653249574e-01
-1.264259558756667019e-02
-6.145963674435810098e-02
-1.911232032847122453e-01
1.317021044117913479e-02
-1.375559906526141810e-02
-4.150721433039569752e-02
9.446262429186067303e-03
2.240662793822295329e-01
1.069464499011574393e-01
2.446845224701572202e-02
4.525205405461764363e-02
1.940721169783572175e-01
9.240191889071684705e-02
-1.871159474796136929e-03
2.098331900405837544e-02
-1.054643113521350900e-02
-2.782858136363572030e-02
-1.019448097234121331e-02
-2.666999357657658803e-02
-3.178602383592128017e-02
-4.237779935367278969e-03
1.059947829154374577e-01
1.584846001539667870e-02
8.398134272710871054e-03
-4.771510651185286583e-02
6.174954234936239766e-02
-1.463789586530211831e-03
-6.417344978384342813e-02
5.696965272693583354e-02
1.760176450839161374e-03
5.646434387279246347e-02
-4.642539760019722545e-02
-1.416499266255454850e-03
2.134786786502505529e-01
-2.448698324514233526e-01
-2.189955978833783845e-02
4.830963495120536022e-01
-5.485144964967099135e-01
3.946712820355111756e-02
9.270641457719164258e-01
2.279079219945202069e-03
-4.954773408918377448e-03
-2.969833573252203150e-04
9.795321543966032220e-05
-6.615377448949849061e-03
8.122926144783390937e-03
-1.699859727541163344e-03
-6.045210357003454223e-03
-1.302549726977149901e-02
-1.572678055159043922e-02
1.672637955935213361e-02
2.168328334517938272e-02
-5.327920348158031449e-02
-4.026334225285927576e-02
7.113494857341434718e-02
-7.732169573622302283e-02
-2.002705643122269438e-03
4.984334195912248910e-02
-2.905319479766951124e-02
3.047712918458874917e-02
-4.668711249909917281e-03
-2.995149906097510726e-03
5.138302487326317728e-05
2.393185936836157192e-03
-1.163826734744480979e-02
1.458148819808394864e-02
2.068027017558793715e-02
1.580136133290626146e-02
-1.638317098165920083e-02
1.043071266590179548e-02
-2.528119288164962924e-02
1.185684058563913311e-02
1.374031621267706414e-02
7.947572342255909347e-03
-2.058859541250530889e-02
5.585824233648921475e-04
-4.301540424137165891e-03
8.522501560456951716e-03
-6.532685051826412834e-03
1.214883049471711038e-02
4.115759314740507178e-03
6.201358307997123162e-03
-1.470409472584207136e-02
1.021402483411416873e-02
1.502695592909314383e-03
-1.139400518608887046e-02
-7.393773721536262347e-03
1.083614509810054000e-02
-7.461026723722475988e-03
-2.259075964809845009e-03
-5.723638628851633820e-04
-5.787826220962441308e-03
-1.739524688831688148e-02
-2.032372674143648954e-04
-2.391683666703532316e-02
-1.556261328196206252e-02
2.109683254551861578e-02
4.272891330668866870e-04
-4.046501861147246484e-03
5.993192921160064510e-03
7.659186841234204811e-03
-8.301654294541608442e-03
-1.334535786745277841e-02
-1.811001237804004912e-04
9.203324721165967795e-03
-7.428455848038052582e-03
-1.639167047225140866e-02
5.462781724073047717e-04
1.623661231594067736e-02
-9.825126087935268440e-03
-1.697804557864556613e-02
5.233856293753954593e-03
