4.351412344759389254e-03
9.759507835413938279e-03
-3.267393137901154765e-02
6.507547422010073745e-02
-1.076266428333927105e-01
-1.434707920127649763e-02
5.283550562259241301e-02
-3.405930381691767844e-02
-1.090384973463735668e-01
1.498628837421360771e-01
-1.595050882618606267e-02
2.923367739382522288e-03
3.237892510295895410e-03
3.523746575206854713e-03
-4.001828014014666840e-03
3.940691142228779391e-04
-2.527048475858714466e-03
1.544493572507604252e-02
2.596930135257330408e-02
6.139380914620730552e-03
-4.176518444061106186e-03
-1.301884783056107050e-03
-1.070105041626959186e-02
8.034217777726121099e-03
-3.057591576147818818e-03
-9.318572117067658311e-03
7.608505534483442530e-03
2.209250638010317944e-02
-2.229957501350807170e-02
1.629296820451245353e-02
-1.736901486731518007e-02
2.200321023368872683e-02
1.691725893968877570e-02
-2.749606506483643839e-02
1.051297245242274747e-02
4.000670576884753082e-03
8.254430008451890764e-04
1.099659025113155532e-02
8.220225457811206754e-03
1.240631184423975075e-02
-8.103094456226354880e-02
-2.724604996075598654e-02
-2.052110273951641625e-02
-9.166654502893854806e-03
-3.858927654423852105e-02
-3.511182004795512790e-02
1.347946039808664738e-02
8.093056474550814824e-03
-2.514870620217075567e-02
-1.909104515577742522e-01
-1.009812261995667315e-01
-1.264118745553692233e-02
-5.321338423870022177e-02
-1.803579827307640049e-01
1.929229103233323986e-02
-1.146344868706213223e-02
-5.074763876471775903e-02
8.430058874659101045e-03
2.236386834592169193e-01
1.053148280817165494e-01
2.910043533173239244e-02
4.450843733837333421e-02
1.873714070905373730e-01
9.225197497245977984e-02
-2.826595885889303644e-03
1.612514849634931469e-02
-1.979777946795660201e-02
-1.876112854400227223e-02
-6.529716840040369376e-03
-2.615116413291169312e-02
-2.930255683871560782e-02
-2.661556635490822109e-03
1.052796098377458134e-01
1.469195366795789277e-02
1.480929210698027354e-02
-5.053757170208179883e-02
7.354980368248870137e-02
-4.133581032104766649e-03
-7.023921486654172153e-02
5.551266734986015638e-02
5.072233537575253186e-03
5.848772609143990803e-02
-4.401118466462283080e-02
-6.965512029745849105e-03
2.210498017704791984e-01
-2.423433672068760480e-01
-2.401013067701155551e-02
4.834394625939014700e-01
-5.535418485912909636e-01
5.280752050811643450e-02
9.220577062064007068e-01
6.600005195108566390e-03
1.703549461359112321e-03
-7.733823098435194804e-03
4.120695632046250689e-04
-7.072432939103194538e-03
6.245932460374381892e-03
-4.459702671914598897e-03
-4.555657194459312651e-03
-1.113754042986801751e-02
-1.660241315097777878e-02
1.230755851239337222e-02
2.356383289245009630e-02
-5.209259005490837757e-02
-3.872219871904433730e-02
6.806698186615106616e-02
-7.607117398182425272e-02
5.213813279863747929e-03
4.953513008887848457e-02
-3.231351377105991934e-02
3.879316884394976017e-02
-9.718514029935917606e-03
-8.535693407486775672e-03
6.740146786958731715e-04
4.151989943235227798e-03
-1.562166964387309669e-02
2.465319774652871901e-02
1.870668266405415767e-02
2.191659244910216728e-02
-1.620072804609867106e-02
9.220064152618490799e-03
-2.330067652458727226e-02
6.327868806269851612e-03
9.719649902194128777e-03
4.474795337191886119e-04
-1.914291632970182080e-02
-1.083201335604961789e-03
3.847655394834402758e-03
1.520014126902005484e-02
-5.629603213108132220e-03
8.334519364899562258e-03
6.483440539159850483e-03
6.696313946548929259e-03
-1.569194875441409440e-02
1.036403215026980920e-02
4.234751754359675452e-04
-8.496058264825278802e-03
-8.992689480087129664e-03
7.431192675091522273e-03
-8.635990126400127850e-03
1.084429187896922449e-03
-1.421556109239377995e-03
-3.144341533440792990e-03
-1.300826983328288652e-02
-4.537455493448136652e-03
-1.978024645230771691e-02
-1.801007474749879989e-02
1.488235317811381804e-02
1.285636189864372645e-03
-5.024447491897011432e-03
1.051568382130625224e-03
4.611443479944830198e-03
-6.266604012893462611e-03
-1.192035778675637654e-02
-4.814676595842841801e-04
1.641431207391066266e-02
-5.466695127914987344e-03
-9.457463497117981482e-03
1.965157854766848809e-03
2.094955464212618426e-02
-4.725072461501977558e-03
-2.003180787571356980e-02
6.674977905579066069e-03
