6.533332274037853375e-03
1.027148594655213909e-02
-3.055377804856483290e-02
6.302163302701693781e-02
-1.079822527527251746e-01
-5.922663187661524227e-03
4.297737577344266924e-02
-3.955358295585933298e-02
-9.854777803661461666e-02
1.592863480459198733e-01
-2.342986142308126421e-02
1.005230614663586534e-02
2.254924225312265103e-03
2.805577854869099191e-03
-5.282829189373942913e-03
6.967211293305380915e-03
-1.502932236846056188e-02
1.258862228089292767e-02
1.642532802745294562e-02
-3.931053942603535481e-03
-1.057009905992726227e-02
-1.071545882447762135e-03
-9.426109705624054202e-03
8.806252807270516583e-03
-9.034744088650396854e-03
-1.129417863546313024e-02
8.892446027388126520e-03
2.980353126380884052e-02
-1.453822447825698153e-02
2.153658308486687198e-02
-2.453784945576425319e-02
1.531602082469052210e-02
3.272234895550976859e-03
-3.418376384495523668e-02
1.424491560718717763e-02
1.572673092270380005e-02
5.893918005428105608e-03
1.688361338955671892e-02
3.118691234004983617e-02
1.071838391466640658e-02
-8.435091797381209788e-02
-5.248892072685830412e-02
-1.879887238189343474e-02
-5.955360598764510016e-03
-4.573902400899939463e-02
-3.491743934968934843e-02
1.797661251060599444e-02
5.426510007659082757e-02
-2.271684383945049568e-02
-1.959907724119987205e-01
-1.595974196992120675e-01
-1.901935141123557368e-02
-5.814675260405820223e-02
-1.765804877006136031e-01
2.356038304320075272e-02
-1.325048806811197390e-02
-8.488897799398323341e-02
1.607298889393980745e-02
2.398360763774095017e-01
1.773278035497551086e-01
3.933754839789537633e-02
3.267983747473943851e-02
1.872396325693799213e-01
9.380041176108094847e-02
-5.770354606311933927e-03
8.185055593075507216e-03
-1.218820587165713593e-02
-1.888998461833907294e-02
4.598179993037718877e-03
-2.236897624665691239e-02
-2.505527156028766050e-02
9.899704023718673349e-04
1.074998903339767775e-01
1.804487369616565931e-02
1.110231143626271184e-02
-4.776757372289603537e-02
7.189905139421452762e-02
-3.373077768858747001e-03
-6.467367960072423205e-02
6.352173584533717110e-02
2.733368182309612628e-03
5.409350336409117499e-02
-4.639909321735911918e-02
-4.301789070301261647e-03
2.189574440464178984e-01
-2.362091171700203551e-01
-2.353588282958547773e-02
4.775009905406147337e-01
-5.466511776152906954e-01
4.428916554909173575e-02
9.242067706696330820e-01
4.864192116701241374e-03
-2.882437300009327557e-03
-1.299776155937702390e-02
-3.578739306653534649e-03
-1.050993883718349259e-02
5.086325329084700510e-03
3.692730180666227609e-03
-1.256870159750238941e-02
-5.317400992052454846e-03
-1.342527250233629087e-02
1.179149338968229002e-02
1.681772636663850934e-02
-4.856598677939719111e-02
-4.875212616698586243e-02
7.160741434418210760e-02
-8.359466338967123933e-02
7.414611640744574357e-03
5.458569747237457248e-02
-3.042180806506508337e-02
2.996112561069425723e-02
-3.143057361759001109e-03
-2.101759751843183550e-03
1.152674393557803247e-02
1.478803946114403550e-02
-1.244814178706635417e-02
1.113869480830037562e-02
2.467058928161882173e-02
3.178173668179599259e-02
-2.682845737046016948e-02
1.435892045252350722e-02
-1.790460332551196965e-02
2.533373897954760683e-03
8.925439673910068664e-03
4.052057556008075052e-03
-1.541019180993735693e-02
-7.680287822462619762e-03
1.848299099245106786e-03
1.580191830483237622e-02
-1.955743803848286513e-04
2.675493054765985292e-03
-1.658973249331282401e-03
1.899806500484171878e-02
-1.498766705725559402e-02
1.333441584214123052e-02
5.369585378130351319e-03
-1.083173709961459362e-02
-4.638964152858318646e-04
9.712602913564278781e-03
-6.276573153114030704e-03
6.328463407741121566e-03
-3.644802133111491385e-03
7.920303792381257896e-03
-1.504949005356160351e-02
-8.304264867255246787e-04
-1.274486760080594840e-02
-1.627282002899155949e-02
2.171910864727371465e-02
-6.569325931208139235e-03
-8.516322124720856687e-03
2.659784668219232658e-03
-3.644969576944109314e-03
-1.112487172889221540e-02
-1.054831960671748399e-02
4.110155197766307555e-03
1.339995935622950197e-02
-3.051298548125121711e-03
-1.262894225442207433e-02
-1.728234784876320554e-03
1.743723029775850336e-02
-9.425541397144321723e-03
-1.594989267479272541e-02
6.210581240272627056e-03
