-5.327775347833739114e-03
6.965523578109004618e-03
-3.381664330753893222e-02
6.513650208455964985e-02
-1.081298551192060309e-01
-1.488053712253046938e-02
4.924289600662500738e-02
-3.909749091953227534e-02
-1.022071406376464098e-01
1.449359154235587144e-01
-2.437213671151630678e-02
4.050294406670367810e-03
-1.205556670814141420e-03
1.217656479308412741e-04
-3.077765095763265474e-03
7.163622246087245331e-05
-3.574781817427504990e-03
1.617978493787734784e-02
2.345134420946681439e-02
2.619584277799369768e-03
-6.527706909317945901e-03
3.247336954056296177e-03
-1.340287619532082308e-02
8.886192600960940088e-03
-6.283728520440622599e-03
-8.850525108354941051e-03
4.565507123232909019e-03
1.519142236554747206e-02
-1.748017761711196869e-02
1.820862094248562948e-02
-2.461901503232803712e-02
1.698317949555173609e-02
1.354331302184209537e-02
-2.850982608589440470e-02
1.489276829326619672e-02
5.232105399457421917e-03
7.897947224066878547e-03
1.659573459784129471e-02
1.074795031598783923e-02
7.954277317321860677e-03
-8.465015047641767654e-02
-3.665009060362895560e-02
-2.318104503779402220e-02
-8.901113897901267655e-03
-4.306540763113733683e-02
-2.736163253037454321e-02
1.669885716810231083e-02
1.205835482927682806e-02
-1.837203130345701346e-02
-2.043082594668005625e-01
-1.123595645152761363e-01
-9.253562978071021641e-03
-5.877801063422709305e-02
-1.917473822130814909e-01
2.131298150205853878e-02
-1.177578690970508719e-02
-3.989343413571348057e-02
1.631276889017672579e-02
2.363749309467782500e-01
1.111271561461967955e-01
3.111114753508388217e-02
4.342124220583045563e-02
2.036754473563608114e-01
9.721405922065562422e-02
1.067681439953210593e-03
1.321748052447772014e-02
-2.190116491158571738e-02
-2.872552208476019525e-02
-6.830258424261754710e-03
-2.062268505621576986e-02
-2.597137789591398918e-02
4.478559305161864540e-03
9.669614720774533101e-02
1.761327649027570955e-02
1.274449033216415450e-02
-4.763197493801948207e-02
6.686454160422213022e-02
-7.413746510355208319e-03
-6.660498566933449605e-02
5.650109106481633614e-02
-8.805474301973316778e-03
6.285133417906978159e-02
-4.932505754983061708e-02
-1.188389584791043480e-02
2.207035670718410503e-01
-2.489755107584882554e-01
-2.243378121089223409e-02
4.831487716095609342e-01
-5.522011263199854136e-01
3.662852020122609603e-02
9.315787172594818255e-01
7.743192872549051545e-03
9.125378522796071803e-04
-1.147842901579759246e-02
-8.815151739092747093e-04
-7.456942488527179905e-03
1.505266459514178774e-03
-2.810627301452089423e-05
-1.992152844239699272e-04
-6.162287078786000093e-03
-1.334663757350370433e-02
1.293418022933747608e-02
1.897738613118924583e-02
-4.511039693078632701e-02
-4.698904007222697715e-02
6.243136077295916714e-02
-8.321883825662625134e-02
1.023303651202583410e-02
5.061649624725946678e-02
-3.453483397290728341e-02
3.757679475014810005e-02
-8.927829211853576322e-03
-9.759454112064157305e-03
2.239628424872074173e-03
9.857212915168125922e-03
-1.220852551216716590e-02
1.881085360289673838e-02
1.387688161133659483e-02
2.487446860544036478e-02
-2.044340525734232930e-02
1.604643161710716040e-02
-2.668907938248822609e-02
8.203481288203796212e-03
1.229698915494762887e-02
1.955139446300197155e-03
-1.821939049906447575e-02
-5.503984411158967943e-03
-3.589034401610305836e-03
2.135316723094991473e-02
-3.810445349874056354e-03
4.920135560531324441e-03
1.208662901065450873e-03
1.822692916944440404e-03
-1.522723804812291942e-02
9.487508909790153336e-03
-2.093189782530181786e-03
-1.071054651396209992e-02
3.171343752825415366e-04
5.699285752639995581e-03
-1.115201593378503664e-02
-3.737240722664847848e-03
-7.353384014890734614e-03
8.440432681502998665e-04
-1.631004908398895822e-02
5.851812558103683783e-04
-2.020221621189263045e-02
-9.745828440530714121e-03
1.609961681393876770e-02
-6.204583766456521141e-04
-6.910454668725692778e-03
3.413393128349449801e-03
2.206756779054509093e-03
-5.671320804501195356e-03
-1.463034998186454189e-02
-2.680042979215212923e-04
1.520151877072392112e-02
-8.004870060700683063e-03
-1.303827007083981603e-02
4.009677747117064081e-03
1.856408545551934200e-02
-2.144629332095424838e-03
-2.039260839165926015e-02
6.594707307859714283e-03
