-1.096144202165305614e-03
1.044402085244655609e-02
-2.661274373531341553e-02
1.137814857065677643e-02
-4.207275435328483582e-02
1.255131606012582779e-02
1.082570664584636688e-02
-7.635593414306640625e-03
-4.531887173652648926e-02
6.968544423580169678e-02
-1.711247861385345459e-02
4.082765430212020874e-03
4.896772559732198715e-03
7.927137427031993866e-03
-4.467503633350133896e-03
-1.441199914552271366e-03
-1.012613531202077866e-02
8.326664566993713379e-03
3.286144509911537170e-02
3.845677711069583893e-03
-2.023442648351192474e-03
4.124505445361137390e-03
-8.595653809607028961e-03
8.910597302019596100e-03
-2.647493034601211548e-03
-9.237620979547500610e-03
5.375035107135772705e-03
2.451720647513866425e-02
-1.665806770324707031e-02
1.479361671954393387e-02
-8.697449229657649994e-03
1.686601154506206512e-02
1.175073627382516861e-02
-2.251419983804225922e-02
1.741924206726253033e-03
9.502054192125797272e-03
7.874211296439170837e-03
4.795679822564125061e-03
1.501556485891342163e-03
1.664581708610057831e-02
-6.071054376661777496e-03
-2.293869620189070702e-03
-1.207279041409492493e-02
8.068745955824851990e-03
1.433829776942729950e-02
-2.511182799935340881e-02
1.358823478221893311e-02
-1.924899034202098846e-02
-9.302609600126743317e-03
-1.895851828157901764e-02
-6.945091765373945236e-03
-1.832114998251199722e-03
-2.083205990493297577e-02
-3.219752013683319092e-02
5.938880890607833862e-02
3.963964991271495819e-03
-1.709404774010181427e-02
2.269504591822624207e-03
1.018237974494695663e-02
5.757694598287343979e-03
6.160999648272991180e-03
-7.962118834257125854e-03
1.248606247827410698e-03
5.630872026085853577e-02
2.855735598132014275e-03
1.108827348798513412e-02
-1.049762591719627380e-02
-1.983120106160640717e-02
-2.770336344838142395e-03
-2.999704889953136444e-02
-3.156136721372604370e-02
-1.446608267724514008e-02
1.159018203616142273e-01
-4.765301011502742767e-03
1.081680227071046829e-02
2.530394354835152626e-03
1.733323931694030762e-02
-2.355676703155040741e-02
-3.888814826495945454e-04
1.747118867933750153e-02
-1.381032448261976242e-02
8.177605271339416504e-02
-1.974040642380714417e-02
2.147296629846096039e-02
9.676896035671234131e-02
-1.350840926170349121e-01
2.487265877425670624e-02
3.290604650974273682e-01
-4.443401396274566650e-01
4.863040521740913391e-02
8.963258266448974609e-01
3.635637927800416946e-03
3.376156091690063477e-04
-6.300619337707757950e-03
6.883213063701987267e-04
-5.823098588734865189e-03
6.751969922333955765e-03
1.298488001339137554e-03
-3.625909099355340004e-03
-1.055205799639225006e-02
-1.188135333359241486e-02
2.813837490975856781e-02
-6.930907722562551498e-03
-2.794881351292133331e-02
-1.795393414795398712e-02
3.186763077974319458e-02
-5.731917917728424072e-02
1.050814148038625717e-02
2.844229340553283691e-02
-3.177779912948608398e-02
3.736944496631622314e-02
-7.567840162664651871e-03
-5.533464718610048294e-03
-3.621155396103858948e-03
8.567767217755317688e-03
-1.158844865858554840e-02
1.243386603891849518e-02
1.804410479962825775e-02
1.859350129961967468e-02
-9.746998548507690430e-03
3.356626024469733238e-03
-2.716352976858615875e-02
2.763531170785427094e-03
1.714698784053325653e-02
5.829554051160812378e-03
-2.223315276205539703e-02
-9.802096523344516754e-03
-2.030784497037529945e-03
1.663594879209995270e-02
-3.947239834815263748e-03
1.287654135376214981e-02
2.347899833694100380e-03
8.883602917194366455e-03
-1.497758179903030396e-02
7.126515265554189682e-03
1.304931472986936569e-03
-1.115584373474121094e-02
-4.914299119263887405e-03
4.650429822504520416e-03
-1.232294645160436630e-02
3.589319996535778046e-03
1.938935136422514915e-03
-6.181292119435966015e-04
-1.438973005861043930e-02
3.061068477109074593e-03
-1.071571372449398041e-02
-6.877025123685598373e-03
1.506886165589094162e-02
4.744382109493017197e-03
-5.958418361842632294e-03
-6.199207622557878494e-03
-2.629888709634542465e-03
-3.442408051341772079e-03
-7.199470885097980499e-03
-1.175583456642925739e-03
1.202962547540664673e-02
-1.090544834733009338e-02
-1.527807582169771194e-02
-4.051206633448600769e-04
2.134501375257968903e-02
-2.129310043528676033e-03
-1.635768637061119080e-02
1.147596165537834167e-02
