7.645778407839558775e-03
2.880650434391405015e-03
-3.951155887807319272e-02
6.170030295556041405e-02
-1.087482639780317228e-01
-1.204582245200765990e-02
4.572351710726937218e-02
-3.855418714065530356e-02
-1.026226168349285151e-01
1.611161987804605455e-01
-2.136881842251997510e-02
7.205130018284381516e-03
2.405355980034964286e-03
3.103962512419082467e-04
-1.242635315692697424e-02
4.162944877047806795e-03
-4.462560779555827840e-03
1.246075978649257773e-02
2.099926565056903574e-02
4.195676533168790981e-03
-2.858957936339557616e-03
7.835665140971625336e-03
-8.253842207721261148e-03
5.708193750067092065e-03
-3.199830318541208030e-03
-8.557839769593251350e-03
7.079156313122081726e-03
1.876377723662908323e-02
-1.870771391523913529e-02
1.534583839688192369e-02
-2.052076096909108763e-02
2.365843210745851438e-02
1.726435219859256270e-02
-2.468927616773600175e-02
1.270012816756327725e-02
7.903192800028161630e-03
-1.155510586428637422e-03
1.764316381515767390e-02
1.341795473034792380e-02
1.523773711626730948e-02
-8.066432954384168685e-02
-3.157091878228771020e-02
-1.247711045167628971e-02
-1.966566155372747801e-02
-4.819080449779515607e-02
-3.268930639073441835e-02
1.845428850860527173e-02
1.262706957898064933e-02
-2.024764418647580916e-02
-2.036331028129071685e-01
-1.083075861979745369e-01
-1.599657714810152898e-02
-6.311918836746345518e-02
-1.959599903144429167e-01
1.682200178773169547e-02
-9.776187325445702056e-03
-5.024623606626162781e-02
1.631602252406710862e-02
2.415303250984419670e-01
1.128425695483778329e-01
2.609959265791207336e-02
4.064827251746925413e-02
2.062435032107668154e-01
1.003469549634208868e-01
-3.278339821422952133e-03
1.642567501879569139e-02
-1.460407821711720913e-02
-1.631283436481055504e-02
-9.682683862717336026e-03
-3.542628215437905459e-02
-2.520764795365744437e-02
-1.286286037195657345e-03
1.083703698918626890e-01
1.325364824729635162e-02
1.167722159293170525e-02
-5.186761581797128678e-02
7.173651742914599616e-02
7.149904020085564183e-04
-6.729791229602208325e-02
6.186728504187451877e-02
4.517688100132526141e-03
5.684162909813406800e-02
-4.377952908381707586e-02
-4.192562880621121535e-03
2.200244582365031842e-01
-2.475697889911722127e-01
-2.123208809453010909e-02
4.772129446281594967e-01
-5.489260899279111428e-01
5.569314929321821789e-02
9.277310075555595947e-01
4.999159729000557384e-03
1.430639528951861195e-04
-3.516091020181042002e-03
1.719595885923451330e-03
-7.091561490891020239e-03
4.420808743806760137e-03
-1.089424840106487276e-03
8.928249948824732406e-04
-1.036253396123260929e-02
-2.118081783056938866e-02
1.240522817011894402e-02
2.269886262901111076e-02
-5.247695569690789125e-02
-3.616365378795779323e-02
7.256008442425443405e-02
-7.999211845172521373e-02
-1.927405994039116735e-03
5.492258598244387918e-02
-3.133966056622516233e-02
3.847656119244727974e-02
-6.046572506405367350e-03
-7.572962746096816196e-03
4.402750134317577439e-03
1.415681037762828685e-02
-1.036478899613409166e-02
1.627063209701950369e-02
2.628953998205324494e-02
2.322925931971543678e-02
-1.831711138801330949e-02
8.659357401886022196e-03
-1.592419657744825398e-02
2.426797866102062967e-03
7.553092581754575902e-03
5.031538349348303654e-04
-1.099578130732084200e-02
-7.008958160345599674e-03
-2.328328294608165289e-03
1.247780343024101207e-02
2.081795984861863503e-04
8.099679284604147794e-03
5.299466926337116461e-03
1.280806786973769616e-02
-2.051842767190578676e-02
6.233665908200784755e-03
6.642273633242956957e-03
-9.724771735709821299e-03
-6.858804869508967027e-03
1.333009453518654679e-02
-1.152402813638928741e-02
2.082705710154415541e-03
1.203321231080523295e-05
2.815718840748830621e-04
-1.963095113973680611e-02
-1.844642495954294846e-03
-1.822532113000454451e-02
-1.431155629399098912e-02
1.962021561376492071e-02
5.324564978730746351e-04
-1.951685727720501575e-03
-6.723446650705396143e-05
5.823167727553872804e-03
-3.008392388772240453e-03
-7.502646585559632868e-03
-8.213184054011284378e-05
1.098355491147400866e-02
-5.777857352356401827e-03
-1.184067841260251844e-02
6.444778586937060551e-03
1.478060601747433270e-02
-3.512659851759596021e-04
-2.006483004370430978e-02
9.776498990811215845e-03
