3.684257049695879166e-03
4.643678309592216488e-03
-2.764273572435113277e-02
6.974066433697002909e-02
-9.748702381837609510e-02
-1.040468978207239811e-02
4.742936694509496814e-02
-3.933779674398250881e-02
-9.912417158224379188e-02
1.541088985070164508e-01
-2.202186552914356735e-02
6.279726874698680905e-03
-3.263947472397279830e-03
1.699556084755677590e-03
-8.845993863570636787e-03
-8.414467969862041499e-03
6.717036680404625884e-03
9.192646253669306544e-03
2.824067264626060197e-02
3.917126954347604356e-03
-4.371282095240277242e-03
-1.038181420766673023e-03
-8.510259394460369803e-03
6.517505677671286100e-03
-6.359582510157160348e-03
-1.018335149591284745e-02
5.663577041375368777e-03
1.935280884271281532e-02
-1.742995777295789153e-02
2.118522403503425577e-02
-1.742884572917212729e-02
2.199919781913555264e-02
1.612974356165026643e-02
-2.797498859390016440e-02
5.328458005650089230e-03
3.795701282970733934e-03
2.042583308371172940e-03
1.051885926372398555e-02
1.463639294304281378e-02
9.419898459226666576e-03
-7.254718717085513469e-02
-2.418357343086003503e-02
-1.790970485553728536e-02
-8.305361390679714961e-03
-4.267763235837031960e-02
-2.572086918217140333e-02
1.239924811904194110e-02
1.450965192457648149e-02
-2.465149374940948934e-02
-1.742255970078539218e-01
-9.580276783282457020e-02
-1.738506191499162787e-02
-5.721142797368240773e-02
-1.840921032702879101e-01
1.485074619102489876e-02
-1.508884819612058698e-02
-4.428278232872367298e-02
8.934774046382298537e-03
2.099554849477243135e-01
9.428733426379065641e-02
2.528636641456211837e-02
4.188719347644712793e-02
1.940945272582945968e-01
9.671531825714312081e-02
-4.135158445569160450e-03
1.505686280775619078e-02
-1.572039071237481614e-02
-1.990986787358723503e-02
-5.590707834274569882e-03
-2.792208729138393949e-02
-2.243429423450729598e-02
-2.712520199295313274e-03
1.088087302696099379e-01
6.624380646960465260e-03
1.217850371541320115e-02
-5.384957489308798279e-02
7.324116373823917614e-02
-1.872243287811893890e-03
-6.642514054687743974e-02
5.672781660210712840e-02
7.831374029079794449e-03
5.873470446936610717e-02
-4.985437708196318457e-02
-5.450814515870061952e-03
2.269625258194914175e-01
-2.442014137500387594e-01
-2.334439035656785816e-02
4.928251061333918104e-01
-5.542843364673938344e-01
5.431020790288389882e-02
9.174118504942335717e-01
4.635771154139411640e-03
8.468000368035337282e-04
-7.157050983575681709e-03
2.958238077354457228e-03
-1.336856240854583829e-02
5.613325206555389718e-03
2.805904501402208939e-03
4.239685182965552412e-06
-1.592881575194849894e-02
-1.896315051107043750e-02
1.385132762274608395e-02
2.752488521255766485e-02
-5.013445961210414442e-02
-4.413036743439833348e-02
6.852472320179266163e-02
-8.418937666437906198e-02
8.881245466424138313e-03
5.608298396493398286e-02
-2.911967223579216626e-02
3.955220787862497728e-02
-1.563266268050128235e-02
-1.437530913691706033e-02
-2.032651573853120740e-03
1.152147193045329789e-02
-1.443630903806132973e-02
1.686837578158781326e-02
2.607115585104127428e-02
2.474719598882497637e-02
-1.668198130249386180e-02
1.528171162177093499e-02
-2.137912726769961372e-02
4.312757317415453692e-03
1.363905996661745126e-02
-1.756944266331062973e-03
-1.654854612411648176e-02
-6.034559345228282913e-04
-1.933073246404597243e-03
1.800147480616371212e-02
-4.711533816833406857e-03
1.000981261780203684e-02
7.901249954806890616e-03
7.864450603029059239e-03
-9.232482203858281139e-03
7.866995764357455692e-03
3.308164007423239697e-03
-9.585659183830540914e-03
-5.496180153332788990e-03
6.903707370332952051e-03
-1.387413178500556364e-02
-4.240729344039715493e-03
3.814333744410835104e-03
-3.593756871422170568e-03
-1.390394584508794322e-02
-1.352871360103383592e-03
-1.815833137361677618e-02
-1.833095159952954217e-02
1.453806020402171294e-02
9.580494268417994157e-04
-2.443008411627680711e-03
2.468947295996610451e-03
7.654656113081619723e-03
-1.611809376975198091e-03
-9.622043273010137329e-03
1.104582350709474269e-03
1.046419874256819538e-02
-1.200848626485131500e-02
-1.275149296971035857e-02
-1.742929883401258227e-04
1.288569062968319794e-02
3.211506181941324242e-03
-1.973179588546576310e-02
1.532683801899839722e-02
