-8.244304243045803143e-04
-5.217965052582462099e-02
1.832193393694243888e-02
-2.866856777609873980e-02
-9.276674369248054386e-02
1.510572881755781194e-01
-2.197798449951825217e-02
9.043992934864969122e-03
-5.161687767197809494e-03
6.910690011039510167e-03
1.876662045299918452e-02
1.448671050734330916e-03
-9.207824474835238490e-05
-9.442694216652660396e-04
2.484842392749094658e-03
2.602703035216058849e-02
1.553876485140764235e-02
-1.745767645187925460e-02
-9.256413527511647005e-04
1.402272473634237106e-02
7.117456461922118047e-03
-3.239495716940529041e-02
-2.023047797512691690e-02
-6.942806077702720711e-04
-5.743342806698178982e-02
-1.934557194520042031e-02
-1.284721484153261706e-01
3.389268706701787336e-03
-3.515244336040484335e-02
-2.150093616644752070e-01
3.320709031779552067e-02
1.146893172626582830e-01
1.763435553536675873e-02
2.422802951114668736e-03
2.164395426900753705e-01
8.265734263912352664e-02
-2.807122631642930757e-02
-1.180487979005145731e-02
-3.929357747603382661e-02
3.195787426861906345e-03
1.112404568148275680e-01
1.194722261570993482e-02
-3.375030982093581156e-02
2.847287619559677949e-02
6.175763655724141564e-03
7.258655469237414171e-02
-6.766705223475404096e-02
3.809041721180658757e-01
-4.354875514836146211e-01
2.795667902934908036e-02
9.114602476457537295e-01
-5.488740811175616893e-03
5.804835781955737517e-03
-2.323552690193158264e-03
-4.681277888938030138e-03
-1.098450928318336212e-02
-7.427569850015380837e-02
6.758511403547882990e-02
-9.019005741559260603e-02
1.543101618488924159e-02
4.307354667094829420e-02
-1.173384938658104427e-02
4.652983445180758001e-04
-5.141436597737859306e-03
8.821243800393785417e-03
1.227474296331444899e-02
1.742021972436474291e-03
3.014789608763881025e-04
8.053625036391414208e-03
-1.620087748456725332e-02
1.560676062985748552e-03
3.639498877300652822e-03
1.340880040771770185e-02
-2.823099058171126691e-02
2.146130146131884284e-02
3.974070701887811446e-03
-2.096202275122887714e-03
-7.108562477967014619e-03
1.035166293552139231e-02
-1.445933381732648904e-02
-2.553975846574488891e-03
-6.158515748001091444e-03
3.868699226812412784e-04
3.864846839313330115e-03
-4.429091288241688781e-03
-4.078634017472122092e-03
-2.208701023833245687e-03
1.666774812341208570e-02
-3.777450052568581771e-03
-1.136591814005748907e-02
7.464773255164436523e-03
