5.367598095577617336e-03
-1.104341798200570574e-02
3.142348145170287266e-02
-6.277508808722710547e-03
-7.326196301116076615e-02
-3.249671065049192231e-02
1.690536155100620108e-01
-1.573900314231349573e-01
-4.623270251677399217e-02
2.014356266099049386e-01
1.298473487815466135e-02
2.769296221020421320e-02
-7.817797930629037662e-02
-2.675840920707368148e-02
9.581381744953550161e-02
2.574945778155044232e-02
-8.367270009876200121e-02
4.631977672126411788e-02
1.167520036612044176e-01
-6.651204704970330173e-02
3.913952788384268688e-02
2.280498388556116973e-01
-3.602239999972472462e-01
-1.267791446270159772e-02
6.379978890834614447e-01
-6.452315444487526364e-01
1.218085381692468327e-01
9.411332517355807115e-01
-2.009652042941514893e-02
1.501876432338726183e-02
1.161002161482123547e-02
-4.180444844603953963e-02
3.695579091536530664e-02
-4.248611191585679320e-02
2.624071416354138361e-02
5.687559427934944442e-03
-1.732420005113220426e-04
-3.160265467636997477e-02
4.284715212157420156e-02
-1.447750290442407529e-02
-3.657135685883185217e-02
-4.178494225533814499e-02
1.616242757797471397e-01
-1.082605489126624437e-01
-1.922304555454144859e-02
-6.812300637752929933e-02
-3.509664001147236312e-02
1.846814638991754048e-02
-8.898082130884031604e-02
5.704262467596527691e-02
5.227998772834672320e-02
-8.693120827473617765e-03
-8.477365899326755327e-02
9.097490804959069977e-02
-1.167656646574260354e-01
-1.807408998803837832e-02
-5.026274778609734345e-02
-2.423728413143672392e-02
2.169045283833354876e-01
-5.886202499893068013e-02
-3.176863808685068125e-01
2.529317558453972326e-01
1.140627320172740850e-01
-2.037001531899902962e-01
7.300077736407824258e-02
-1.455528394367253953e-01
1.838753940993362312e-01
1.108290852257661357e-01
-1.514529537851131147e-01
-3.079167525941358674e-01
3.198870245621993069e-01
-2.567583075981116347e-01
3.226164598181976984e-01
7.168409255895402676e-02
-3.858966983852655380e-02
2.268347779723170130e-03
8.793502519760658387e-02
4.839760288508727568e-03
-1.615339818435997665e-01
8.471242033846496100e-02
-1.808870207774708819e-02
-1.131220208251191295e-01
-4.477572328908140803e-02
7.758201537450998275e-02
-3.591463970836834569e-03
-1.927011306057102580e-01
3.041743702441572494e-02
3.504464945959067657e-01
-1.820891790906501162e-01
-8.073275668400610450e-02
1.667305177862619392e-01
