-2.573749208384571927e-03
-4.801094313884617625e-03
2.480890502087005831e-02
-1.006169876622932738e-02
-6.676795313434336077e-02
-2.614966690637069227e-02
1.549814220005130139e-01
-1.380970670457994376e-01
-5.597158385852350759e-02
2.075305282094554726e-01
2.735660506432311193e-02
1.943333094282089293e-02
-7.473586958646345757e-02
-1.089882238727089489e-02
9.951706451949186849e-02
6.160404475634794104e-03
-6.550706590743061997e-02
3.675004363958374320e-02
1.218908756313846903e-01
-6.219207975822613893e-02
3.165059541206670379e-02
2.115133800430356870e-01
-3.374104896997557335e-01
-8.105398432495098532e-03
6.082922685471935376e-01
-6.087644920238562962e-01
1.056461493491017006e-01
9.353695704916709097e-01
-1.576882880297574702e-02
1.369814691288591402e-02
8.163971109030445164e-03
-3.164783633999235929e-02
3.740765686064156936e-02
-4.119652043038844053e-02
2.911343029489201276e-02
1.544864706240286914e-03
-3.399320564572486797e-03
-1.947430958572487353e-02
4.207303823982704027e-02
-1.653464460159222160e-02
-3.325184688995948962e-02
-3.976252053034309841e-02
1.597716745725034915e-01
-1.050518801297876392e-01
-2.248057863474291901e-02
-6.746231710974903706e-02
-3.261885387293764899e-02
1.463195762332519280e-02
-9.322280728535570216e-02
5.878803968283163178e-02
5.681153920194119411e-02
-9.147301748079367592e-03
-8.372127194312335707e-02
7.306207123732369468e-02
-1.262083530692275357e-01
-2.152271389313134900e-02
-4.587941250946485361e-02
-1.493241616187267196e-02
1.994536335468758137e-01
-5.987114884654793495e-02
-2.822264699213705708e-01
2.167567017365042703e-01
1.268030883568894707e-01
-2.094881920128921771e-01
6.624100616841724354e-02
-1.390770473532708107e-01
1.997043061568560263e-01
9.338451567227688821e-02
-1.627557614297557298e-01
-2.624807212332899709e-01
2.756302504382104335e-01
-2.435346624274723482e-01
3.295299193742590727e-01
6.714103151991542007e-02
-3.739777516068008151e-02
1.968998991467519125e-02
7.079275875959653574e-02
2.707677939073070521e-03
-1.182902895542504579e-01
4.206574548650654499e-02
-5.341448028518307016e-03
-1.193837325481789113e-01
-3.352196951170147154e-02
6.896992278564109680e-02
-1.719649860354005230e-02
-1.662661875682746038e-01
3.990496454544252558e-02
2.929293207741273664e-01
-1.212601980003402968e-01
-9.659712231803414817e-02
1.632915747679786478e-01
