-3.063949094063201078e-03
1.667992273220912777e-03
9.958066982786636587e-03
-2.235341364229530975e-02
-4.495968827437746285e-02
-3.045383186774050163e-02
1.167298054922027428e-01
-1.009165971106320003e-01
-5.888060176797196843e-02
1.916143859773450642e-01
3.677252151857176438e-02
4.541660431136717788e-03
-7.999162261643123772e-02
1.021242874753714933e-02
9.229690131052091517e-02
-3.238962666038306543e-02
-2.640965412667051204e-02
3.725134407582899460e-02
1.098038155321040821e-01
-4.518321039214960588e-02
1.845327757697229343e-02
1.925016814436388002e-01
-2.962916602372026031e-01
-7.778332534760477868e-03
5.346532369856207279e-01
-5.376321466666168503e-01
1.047897111597648340e-01
9.115991952553894606e-01
-1.582762450998616288e-02
1.129673067782966007e-02
9.289862901495270220e-03
-2.535541591041904838e-02
3.557568104161381445e-02
-4.928003126530113021e-02
3.727196499647315170e-02
3.969598443836482721e-03
6.879490292652920384e-03
-1.845483214048849324e-02
3.415542708108622316e-02
-1.821876889927093873e-02
-2.784889897920073132e-02
-3.441806957801011452e-02
1.384085048172729315e-01
-8.511632796299711812e-02
-3.216563665581840398e-02
-6.525645364215625077e-02
-3.701593300269317988e-02
1.194001510080760532e-02
-8.330772139185725622e-02
5.150064713498093971e-02
5.611004544968994923e-02
-6.130955685302989268e-03
-8.606360377600169587e-02
7.280426844859499980e-02
-1.222993963934721900e-01
-4.217187938180864959e-02
-1.943821485852987446e-02
-6.358582145510309307e-03
1.610485885441519383e-01
-5.903909553286351697e-02
-2.081596726240731166e-01
1.394981985757994258e-01
1.328473922226752479e-01
-1.935985764231819561e-01
4.284611416657316263e-02
-9.844536850097226899e-02
2.112497743712819787e-01
3.389144192346043444e-02
-1.757046124809998888e-01
-1.438331570065183584e-01
1.503877824164542854e-01
-2.200445179581956567e-01
3.619248142611679042e-01
4.441250099031535115e-02
-1.381984118952768112e-02
3.151304456944881843e-02
1.563242228271250964e-02
1.113446074259764060e-03
-2.411383455237275236e-02
-5.801716418770956618e-02
-2.143283167748648039e-03
-8.467269809122979218e-02
-5.502830036933614374e-03
2.231030932274835621e-02
-3.765411893704516400e-02
-9.557067634236769693e-02
4.136575534717029656e-02
1.522645937182309228e-01
1.691004953356817914e-02
-9.808864896223330743e-02
1.186404954249287713e-01
