-5.904095809191563411e-03
-4.028322024237931086e-03
2.906157735919416216e-02
-9.751289768105186884e-03
-7.346737251413337777e-02
-2.673057089800623051e-02
1.872800061182871012e-01
-1.668441975576209768e-01
-4.657590509306149679e-02
2.020720614657650072e-01
2.013441064319459670e-02
2.605688488502705749e-02
-6.844650473607707952e-02
-2.791076772766542743e-02
9.649447028424340544e-02
3.033455983046641491e-02
-9.099881430529441206e-02
5.800285507685933040e-02
1.126396578447840247e-01
-6.658664487196100379e-02
3.445520334807530838e-02
2.316002609184096284e-01
-3.591322716558335015e-01
-1.357512737568152168e-02
6.572960866610886299e-01
-6.646162865593768787e-01
1.248330733133387188e-01
9.354503805273661765e-01
-1.587530494960712191e-02
1.188503587394116462e-02
1.564184896257305238e-02
-3.954548359154982234e-02
3.837456552332200316e-02
-3.745045961235680260e-02
2.477892524016149858e-02
4.372305594686061621e-03
-4.446398806536796394e-03
-2.496603944169344461e-02
3.834704904896712313e-02
-1.272430077578613761e-02
-3.520050072989810985e-02
-4.472088162572126352e-02
1.616807092895325981e-01
-1.086243313179318659e-01
-1.622357981248496658e-02
-6.898169189902778053e-02
-3.127339383335521472e-02
1.770913713016818852e-02
-9.071859896663433953e-02
5.445385733854053029e-02
5.822563715738902912e-02
-8.575671578112729551e-03
-8.495157846717159289e-02
7.044654596582639039e-02
-1.100482985067452318e-01
-1.229378208324894903e-02
-4.484088718205780921e-02
-2.874980131240908315e-02
2.265101939480741455e-01
-5.226588531495907075e-02
-3.299908493142222343e-01
2.670896891381762117e-01
1.033177219733520946e-01
-2.176796455815486753e-01
7.651749201463856065e-02
-1.454598695934878338e-01
1.730231161147981478e-01
1.249964030503182416e-01
-1.444736307253246255e-01
-3.446460024241078668e-01
3.630832890727815898e-01
-2.815223876681772208e-01
3.398646101088653171e-01
7.629051226960130438e-02
-3.833943172431607954e-02
-9.109271949014017059e-03
1.054918711968314687e-01
9.482114928875734830e-03
-1.842634175177826072e-01
1.163192210076154365e-01
-3.587862152657030068e-02
-1.160117970929072095e-01
-5.353621221240458666e-02
7.998822298138226483e-02
1.422338988579320909e-02
-2.080829052086390907e-01
1.831775298556438669e-02
3.856482365204290108e-01
-2.282848890899417116e-01
-4.889211758197500174e-02
1.527180948444016584e-01
