8.442245624689085259e-05
5.880213398913198284e-04
8.140668559705632745e-03
-2.098923013880071506e-02
-2.963122330761920956e-02
-3.573266717675226828e-02
1.060723120423809201e-01
-8.693370601154122579e-02
-4.753446270289754527e-02
1.806177338346694194e-01
3.201414957598160138e-02
-1.551739926833184749e-03
-7.770437761222970252e-02
1.565576614146109435e-02
8.333006795167624547e-02
-3.531076509685462245e-02
-1.823202363765347167e-02
4.411615987534724115e-02
1.027343276215937351e-01
-4.497795900408859543e-02
1.467622769571738477e-02
1.857339756416799825e-01
-2.658055982631060687e-01
-1.145541277344767558e-02
5.004044077045410877e-01
-4.976225494975299313e-01
1.034517904045208631e-01
9.044500125299358428e-01
-1.503362682051194964e-02
1.112136589409620097e-02
6.613617373820606868e-03
-2.424684584883264604e-02
3.242799269588758637e-02
-4.818479865597054962e-02
3.542409815273545037e-02
-1.284165794665345335e-03
-2.596845143375442130e-03
-1.609641717970150890e-02
3.188560627628995309e-02
-1.679631776141585556e-02
-2.510506797710777838e-02
-3.246442230847775695e-02
1.274743236183270567e-01
-6.437458626655717664e-02
-5.053126700520620129e-02
-6.328797300995941955e-02
-3.952556763938393225e-02
4.935770542881671823e-03
-6.760153602008422968e-02
4.589717337783381229e-02
5.386546555951250703e-02
5.309970191765637886e-03
-8.423334500822987625e-02
6.596536364316295253e-02
-1.153598876517674815e-01
-4.743796141118453852e-02
-4.773288290599318577e-03
-1.201624412059516464e-02
1.405874808875495485e-01
-4.746035771310928852e-02
-1.904608345594380192e-01
1.241234771506505991e-01
1.216438703278195921e-01
-1.812768480409845950e-01
3.469880727683938987e-02
-7.002292170204002519e-02
1.939247693947105111e-01
1.021929337918879230e-02
-1.619566330820546296e-01
-9.437459298407953334e-02
9.188240853875075109e-02
-1.997081142971109113e-01
3.625665560412926758e-01
4.043981671502867165e-02
3.271988081646813422e-04
3.717078246025806720e-02
-1.281750579007242229e-02
1.327572825874550819e-02
6.243052289239489801e-03
-8.066236142521571173e-02
-2.001623311832354327e-02
-5.653273253826981981e-02
1.241304447435455588e-03
1.986159225884838973e-03
-3.101194761070500544e-02
-6.198019369403619250e-02
3.377508196455419887e-02
1.031630203346712016e-01
6.214171390214184160e-02
-9.462677957979992449e-02
9.555258262929983148e-02
