4.999651151894687721e-03
-4.802065051021914971e-02
2.184548288973060456e-02
-3.632956894379576335e-02
-1.087718721492405699e-01
1.642353194584951215e-01
-4.240116555186696466e-03
1.581423280101491033e-03
-8.619501828691257875e-03
9.477435566577015538e-03
3.030999565801098528e-02
1.023912947165956343e-02
-2.565672861059748421e-03
-1.254714037739146359e-02
3.301706235028087442e-03
1.920632338562821770e-02
1.997156226831761291e-02
-1.807305256046995434e-02
6.853700009725172387e-04
5.567252290340044506e-03
4.241992919630247806e-03
-3.650301556917635165e-02
-9.595068774467929024e-03
4.698433518884275080e-03
-4.971658575839100341e-02
-3.026947387152788965e-02
-1.215639238141244527e-01
4.878970044630273270e-03
-3.986667787407034702e-02
-2.200174377883853116e-01
3.809992718729558053e-02
1.210259568850005074e-01
1.455176269654814142e-02
2.717256632273888119e-03
2.217398880602544642e-01
8.760880122338969567e-02
-3.325890909733467821e-02
-1.749910136346565989e-02
-3.829332453047277346e-02
-3.910081593626539564e-03
9.890347215114929369e-02
1.996078859502664615e-02
-3.471649471452602220e-02
2.102784757276180902e-02
2.912852916004853628e-03
7.292410671269097810e-02
-5.911025093677595155e-02
3.669326091631851527e-01
-4.432109203291845767e-01
2.469694829066470393e-02
9.252918887337413523e-01
-3.586156784926457664e-03
6.751106824351307475e-03
3.906504467580842847e-03
-1.237260495268579542e-02
-1.495690789255500579e-02
-6.688326488099322065e-02
7.457851120929967492e-02
-1.023740794255706826e-01
1.634800422660791230e-02
4.544254451511192672e-02
2.145055977618012463e-03
1.002698475873434192e-02
-1.656309143212598804e-03
1.379100347319181519e-02
1.252800508747321968e-02
-1.508919991121616261e-03
5.715211602064810756e-03
1.039998162916228736e-02
-1.956530781110674827e-02
-9.146534891977375209e-03
5.061280505514907310e-03
1.395787809104291101e-02
-1.679519540201728986e-02
4.438552041656466593e-03
9.785951363101397238e-03
6.918611694837401883e-04
-9.161641294319683090e-04
5.081914788037357683e-04
-2.093986180706919331e-02
-6.888216229903897092e-03
-3.248617800749870142e-03
-2.501049438071825323e-03
-9.593465256832692939e-03
-1.246780127494976839e-02
-6.554143433698288342e-03
-6.001696695802982880e-03
1.591752167127866505e-02
-1.049596856709861942e-02
-1.141790154620839909e-02
1.028909630713804868e-02
